digraph Tree {
node [shape=box] ;
0 [label="sex <= 1.5\ngini = 0.47\nsamples = 982\nvalue = [611, 371]"] ;
1 [label="agerange <= 0.5\ngini = 0.309\nsamples = 643\nvalue = [520, 123]"] ;
0 -> 1 [labeldistance=2.5, labelangle=45, headlabel="True"] ;
2 [label="siblings/spouses <= 2.5\ngini = 0.495\nsamples = 40\nvalue = [18, 22]"] ;
1 -> 2 ;
3 [label=" parents/children <= 0.5\ngini = 0.311\nsamples = 26\nvalue = [5, 21]"] ;
2 -> 3 ;
4 [label="gini = 0.0\nsamples = 1\nvalue = [1, 0]"] ;
3 -> 4 ;
5 [label="pclass <= 2.5\ngini = 0.269\nsamples = 25\nvalue = [4, 21]"] ;
3 -> 5 ;
6 [label="gini = 0.0\nsamples = 10\nvalue = [0, 10]"] ;
5 -> 6 ;
7 [label=" parents/children <= 1.5\ngini = 0.391\nsamples = 15\nvalue = [4, 11]"] ;
5 -> 7 ;
8 [label="title <= 2.5\ngini = 0.278\nsamples = 12\nvalue = [2, 10]"] ;
7 -> 8 ;
9 [label="gini = 0.0\nsamples = 5\nvalue = [0, 5]"] ;
8 -> 9 ;
10 [label="embarked <= 1.5\ngini = 0.408\nsamples = 7\nvalue = [2, 5]"] ;
8 -> 10 ;
11 [label="title <= 3.5\ngini = 0.5\nsamples = 4\nvalue = [2, 2]"] ;
10 -> 11 ;
12 [label="gini = 0.5\nsamples = 2\nvalue = [1, 1]"] ;
11 -> 12 ;
13 [label="gini = 0.5\nsamples = 2\nvalue = [1, 1]"] ;
11 -> 13 ;
14 [label="gini = 0.0\nsamples = 3\nvalue = [0, 3]"] ;
10 -> 14 ;
15 [label="farerange <= 2.5\ngini = 0.444\nsamples = 3\nvalue = [2, 1]"] ;
7 -> 15 ;
16 [label="gini = 0.0\nsamples = 1\nvalue = [1, 0]"] ;
15 -> 16 ;
17 [label="gini = 0.5\nsamples = 2\nvalue = [1, 1]"] ;
15 -> 17 ;
18 [label=" parents/children <= 1.5\ngini = 0.133\nsamples = 14\nvalue = [13, 1]"] ;
2 -> 18 ;
19 [label="gini = 0.0\nsamples = 8\nvalue = [8, 0]"] ;
18 -> 19 ;
20 [label="siblings/spouses <= 3.5\ngini = 0.278\nsamples = 6\nvalue = [5, 1]"] ;
18 -> 20 ;
21 [label="gini = 0.0\nsamples = 2\nvalue = [2, 0]"] ;
20 -> 21 ;
22 [label="title <= 3.5\ngini = 0.375\nsamples = 4\nvalue = [3, 1]"] ;
20 -> 22 ;
23 [label="gini = 0.0\nsamples = 1\nvalue = [1, 0]"] ;
22 -> 23 ;
24 [label="gini = 0.444\nsamples = 3\nvalue = [2, 1]"] ;
22 -> 24 ;
25 [label="pclass <= 1.5\ngini = 0.279\nsamples = 603\nvalue = [502, 101]"] ;
1 -> 25 ;
26 [label="agerange <= 5.5\ngini = 0.431\nsamples = 124\nvalue = [85, 39]"] ;
25 -> 26 ;
27 [label="farerange <= 4.5\ngini = 0.465\nsamples = 95\nvalue = [60, 35]"] ;
26 -> 27 ;
28 [label="title <= 2.5\ngini = 0.495\nsamples = 42\nvalue = [23, 19]"] ;
27 -> 28 ;
29 [label="agerange <= 4.5\ngini = 0.491\nsamples = 23\nvalue = [10, 13]"] ;
28 -> 29 ;
30 [label="agerange <= 2.5\ngini = 0.426\nsamples = 13\nvalue = [4, 9]"] ;
29 -> 30 ;
31 [label="gini = 0.0\nsamples = 1\nvalue = [1, 0]"] ;
30 -> 31 ;
32 [label="farerange <= 2.0\ngini = 0.375\nsamples = 12\nvalue = [3, 9]"] ;
30 -> 32 ;
33 [label="gini = 0.0\nsamples = 1\nvalue = [1, 0]"] ;
32 -> 33 ;
34 [label="agerange <= 3.5\ngini = 0.298\nsamples = 11\nvalue = [2, 9]"] ;
32 -> 34 ;
35 [label="embarked <= 1.5\ngini = 0.375\nsamples = 4\nvalue = [1, 3]"] ;
34 -> 35 ;
36 [label="gini = 0.5\nsamples = 2\nvalue = [1, 1]"] ;
35 -> 36 ;
37 [label="gini = 0.0\nsamples = 2\nvalue = [0, 2]"] ;
35 -> 37 ;
38 [label="embarked <= 1.5\ngini = 0.245\nsamples = 7\nvalue = [1, 6]"] ;
34 -> 38 ;
39 [label="gini = 0.0\nsamples = 4\nvalue = [0, 4]"] ;
38 -> 39 ;
40 [label="gini = 0.444\nsamples = 3\nvalue = [1, 2]"] ;
38 -> 40 ;
41 [label="embarked <= 1.5\ngini = 0.48\nsamples = 10\nvalue = [6, 4]"] ;
29 -> 41 ;
42 [label="farerange <= 1.5\ngini = 0.444\nsamples = 9\nvalue = [6, 3]"] ;
41 -> 42 ;
43 [label="gini = 0.0\nsamples = 1\nvalue = [0, 1]"] ;
42 -> 43 ;
44 [label="farerange <= 3.5\ngini = 0.375\nsamples = 8\nvalue = [6, 2]"] ;
42 -> 44 ;
45 [label="gini = 0.0\nsamples = 1\nvalue = [1, 0]"] ;
44 -> 45 ;
46 [label="gini = 0.408\nsamples = 7\nvalue = [5, 2]"] ;
44 -> 46 ;
47 [label="gini = 0.0\nsamples = 1\nvalue = [0, 1]"] ;
41 -> 47 ;
48 [label="agerange <= 4.5\ngini = 0.432\nsamples = 19\nvalue = [13, 6]"] ;
28 -> 48 ;
49 [label="agerange <= 3.5\ngini = 0.298\nsamples = 11\nvalue = [9, 2]"] ;
48 -> 49 ;
50 [label="farerange <= 3.5\ngini = 0.5\nsamples = 4\nvalue = [2, 2]"] ;
49 -> 50 ;
51 [label="gini = 0.0\nsamples = 1\nvalue = [0, 1]"] ;
50 -> 51 ;
52 [label="embarked <= 1.5\ngini = 0.444\nsamples = 3\nvalue = [2, 1]"] ;
50 -> 52 ;
53 [label="gini = 0.5\nsamples = 2\nvalue = [1, 1]"] ;
52 -> 53 ;
54 [label="gini = 0.0\nsamples = 1\nvalue = [1, 0]"] ;
52 -> 54 ;
55 [label="gini = 0.0\nsamples = 7\nvalue = [7, 0]"] ;
49 -> 55 ;
56 [label="title <= 3.5\ngini = 0.5\nsamples = 8\nvalue = [4, 4]"] ;
48 -> 56 ;
57 [label="gini = 0.444\nsamples = 6\nvalue = [4, 2]"] ;
56 -> 57 ;
58 [label="gini = 0.0\nsamples = 2\nvalue = [0, 2]"] ;
56 -> 58 ;
59 [label="title <= 1.5\ngini = 0.422\nsamples = 53\nvalue = [37, 16]"] ;
27 -> 59 ;
60 [label="embarked <= 1.5\ngini = 0.255\nsamples = 20\nvalue = [17, 3]"] ;
59 -> 60 ;
61 [label="gini = 0.0\nsamples = 9\nvalue = [9, 0]"] ;
60 -> 61 ;
62 [label="agerange <= 2.5\ngini = 0.397\nsamples = 11\nvalue = [8, 3]"] ;
60 -> 62 ;
63 [label="gini = 0.0\nsamples = 2\nvalue = [2, 0]"] ;
62 -> 63 ;
64 [label="agerange <= 3.5\ngini = 0.444\nsamples = 9\nvalue = [6, 3]"] ;
62 -> 64 ;
65 [label="gini = 0.0\nsamples = 1\nvalue = [0, 1]"] ;
64 -> 65 ;
66 [label="siblings/spouses <= 0.5\ngini = 0.375\nsamples = 8\nvalue = [6, 2]"] ;
64 -> 66 ;
67 [label="agerange <= 4.5\ngini = 0.278\nsamples = 6\nvalue = [5, 1]"] ;
66 -> 67 ;
68 [label="gini = 0.5\nsamples = 2\nvalue = [1, 1]"] ;
67 -> 68 ;
69 [label="gini = 0.0\nsamples = 4\nvalue = [4, 0]"] ;
67 -> 69 ;
70 [label=" parents/children <= 0.5\ngini = 0.5\nsamples = 2\nvalue = [1, 1]"] ;
66 -> 70 ;
71 [label="gini = 0.0\nsamples = 1\nvalue = [0, 1]"] ;
70 -> 71 ;
72 [label="gini = 0.0\nsamples = 1\nvalue = [1, 0]"] ;
70 -> 72 ;
73 [label="agerange <= 4.5\ngini = 0.478\nsamples = 33\nvalue = [20, 13]"] ;
59 -> 73 ;
74 [label="title <= 2.5\ngini = 0.499\nsamples = 25\nvalue = [13, 12]"] ;
73 -> 74 ;
75 [label="agerange <= 2.5\ngini = 0.475\nsamples = 18\nvalue = [11, 7]"] ;
74 -> 75 ;
76 [label=" parents/children <= 1.5\ngini = 0.5\nsamples = 6\nvalue = [3, 3]"] ;
75 -> 76 ;
77 [label="agerange <= 1.5\ngini = 0.48\nsamples = 5\nvalue = [3, 2]"] ;
76 -> 77 ;
78 [label="gini = 0.0\nsamples = 2\nvalue = [2, 0]"] ;
77 -> 78 ;
79 [label=" parents/children <= 0.5\ngini = 0.444\nsamples = 3\nvalue = [1, 2]"] ;
77 -> 79 ;
80 [label="gini = 0.0\nsamples = 2\nvalue = [0, 2]"] ;
79 -> 80 ;
81 [label="gini = 0.0\nsamples = 1\nvalue = [1, 0]"] ;
79 -> 81 ;
82 [label="gini = 0.0\nsamples = 1\nvalue = [0, 1]"] ;
76 -> 82 ;
83 [label=" parents/children <= 1.5\ngini = 0.444\nsamples = 12\nvalue = [8, 4]"] ;
75 -> 83 ;
84 [label=" parents/children <= 0.5\ngini = 0.48\nsamples = 10\nvalue = [6, 4]"] ;
83 -> 84 ;
85 [label="embarked <= 1.5\ngini = 0.408\nsamples = 7\nvalue = [5, 2]"] ;
84 -> 85 ;
86 [label="agerange <= 3.5\ngini = 0.48\nsamples = 5\nvalue = [3, 2]"] ;
85 -> 86 ;
87 [label="gini = 0.0\nsamples = 1\nvalue = [0, 1]"] ;
86 -> 87 ;
88 [label="gini = 0.375\nsamples = 4\nvalue = [3, 1]"] ;
86 -> 88 ;
89 [label="gini = 0.0\nsamples = 2\nvalue = [2, 0]"] ;
85 -> 89 ;
90 [label="siblings/spouses <= 0.5\ngini = 0.444\nsamples = 3\nvalue = [1, 2]"] ;
84 -> 90 ;
91 [label="embarked <= 1.5\ngini = 0.5\nsamples = 2\nvalue = [1, 1]"] ;
90 -> 91 ;
92 [label="gini = 0.0\nsamples = 1\nvalue = [1, 0]"] ;
91 -> 92 ;
93 [label="gini = 0.0\nsamples = 1\nvalue = [0, 1]"] ;
91 -> 93 ;
94 [label="gini = 0.0\nsamples = 1\nvalue = [0, 1]"] ;
90 -> 94 ;
95 [label="gini = 0.0\nsamples = 2\nvalue = [2, 0]"] ;
83 -> 95 ;
96 [label="siblings/spouses <= 0.5\ngini = 0.408\nsamples = 7\nvalue = [2, 5]"] ;
74 -> 96 ;
97 [label="agerange <= 1.5\ngini = 0.5\nsamples = 4\nvalue = [2, 2]"] ;
96 -> 97 ;
98 [label="gini = 0.0\nsamples = 1\nvalue = [1, 0]"] ;
97 -> 98 ;
99 [label="title <= 3.5\ngini = 0.444\nsamples = 3\nvalue = [1, 2]"] ;
97 -> 99 ;
100 [label="agerange <= 3.0\ngini = 0.5\nsamples = 2\nvalue = [1, 1]"] ;
99 -> 100 ;
101 [label="gini = 0.0\nsamples = 1\nvalue = [0, 1]"] ;
100 -> 101 ;
102 [label="gini = 0.0\nsamples = 1\nvalue = [1, 0]"] ;
100 -> 102 ;
103 [label="gini = 0.0\nsamples = 1\nvalue = [0, 1]"] ;
99 -> 103 ;
104 [label="gini = 0.0\nsamples = 3\nvalue = [0, 3]"] ;
96 -> 104 ;
105 [label="embarked <= 1.5\ngini = 0.219\nsamples = 8\nvalue = [7, 1]"] ;
73 -> 105 ;
106 [label="gini = 0.0\nsamples = 5\nvalue = [5, 0]"] ;
105 -> 106 ;
107 [label="siblings/spouses <= 0.5\ngini = 0.444\nsamples = 3\nvalue = [2, 1]"] ;
105 -> 107 ;
108 [label="gini = 0.0\nsamples = 1\nvalue = [1, 0]"] ;
107 -> 108 ;
109 [label="gini = 0.5\nsamples = 2\nvalue = [1, 1]"] ;
107 -> 109 ;
110 [label="title <= 2.5\ngini = 0.238\nsamples = 29\nvalue = [25, 4]"] ;
26 -> 110 ;
111 [label="gini = 0.0\nsamples = 19\nvalue = [19, 0]"] ;
110 -> 111 ;
112 [label="farerange <= 4.5\ngini = 0.48\nsamples = 10\nvalue = [6, 4]"] ;
110 -> 112 ;
113 [label="title <= 3.5\ngini = 0.49\nsamples = 7\nvalue = [3, 4]"] ;
112 -> 113 ;
114 [label="embarked <= 1.5\ngini = 0.32\nsamples = 5\nvalue = [1, 4]"] ;
113 -> 114 ;
115 [label="gini = 0.444\nsamples = 3\nvalue = [1, 2]"] ;
114 -> 115 ;
116 [label="gini = 0.0\nsamples = 2\nvalue = [0, 2]"] ;
114 -> 116 ;
117 [label="gini = 0.0\nsamples = 2\nvalue = [2, 0]"] ;
113 -> 117 ;
118 [label="gini = 0.0\nsamples = 3\nvalue = [3, 0]"] ;
112 -> 118 ;
119 [label="siblings/spouses <= 0.5\ngini = 0.225\nsamples = 479\nvalue = [417, 62]"] ;
25 -> 119 ;
120 [label="farerange <= 4.5\ngini = 0.251\nsamples = 387\nvalue = [330, 57]"] ;
119 -> 120 ;
121 [label="farerange <= 0.5\ngini = 0.233\nsamples = 378\nvalue = [327, 51]"] ;
120 -> 121 ;
122 [label="agerange <= 5.5\ngini = 0.268\nsamples = 201\nvalue = [169, 32]"] ;
121 -> 122 ;
123 [label="agerange <= 1.5\ngini = 0.278\nsamples = 192\nvalue = [160, 32]"] ;
122 -> 123 ;
124 [label="title <= 1.5\ngini = 0.176\nsamples = 41\nvalue = [37, 4]"] ;
123 -> 124 ;
125 [label="gini = 0.0\nsamples = 21\nvalue = [21, 0]"] ;
124 -> 125 ;
126 [label="embarked <= 1.5\ngini = 0.32\nsamples = 20\nvalue = [16, 4]"] ;
124 -> 126 ;
127 [label="title <= 2.5\ngini = 0.18\nsamples = 10\nvalue = [9, 1]"] ;
126 -> 127 ;
128 [label="gini = 0.375\nsamples = 4\nvalue = [3, 1]"] ;
127 -> 128 ;
129 [label="gini = 0.0\nsamples = 6\nvalue = [6, 0]"] ;
127 -> 129 ;
130 [label="title <= 2.5\ngini = 0.42\nsamples = 10\nvalue = [7, 3]"] ;
126 -> 130 ;
131 [label="gini = 0.0\nsamples = 4\nvalue = [4, 0]"] ;
130 -> 131 ;
132 [label="embarked <= 2.5\ngini = 0.5\nsamples = 6\nvalue = [3, 3]"] ;
130 -> 132 ;
133 [label="gini = 0.5\nsamples = 4\nvalue = [2, 2]"] ;
132 -> 133 ;
134 [label="gini = 0.5\nsamples = 2\nvalue = [1, 1]"] ;
132 -> 134 ;
135 [label="agerange <= 2.5\ngini = 0.302\nsamples = 151\nvalue = [123, 28]"] ;
123 -> 135 ;
136 [label="title <= 3.5\ngini = 0.371\nsamples = 61\nvalue = [46, 15]"] ;
135 -> 136 ;
137 [label="pclass <= 2.5\ngini = 0.358\nsamples = 60\nvalue = [46, 14]"] ;
136 -> 137 ;
138 [label="gini = 0.0\nsamples = 2\nvalue = [2, 0]"] ;
137 -> 138 ;
139 [label="embarked <= 1.5\ngini = 0.366\nsamples = 58\nvalue = [44, 14]"] ;
137 -> 139 ;
140 [label="title <= 2.5\ngini = 0.355\nsamples = 39\nvalue = [30, 9]"] ;
139 -> 140 ;
141 [label="title <= 1.5\ngini = 0.36\nsamples = 34\nvalue = [26, 8]"] ;
140 -> 141 ;
142 [label="gini = 0.35\nsamples = 31\nvalue = [24, 7]"] ;
141 -> 142 ;
143 [label="gini = 0.444\nsamples = 3\nvalue = [2, 1]"] ;
141 -> 143 ;
144 [label="gini = 0.32\nsamples = 5\nvalue = [4, 1]"] ;
140 -> 144 ;
145 [label="title <= 2.5\ngini = 0.388\nsamples = 19\nvalue = [14, 5]"] ;
139 -> 145 ;
146 [label="embarked <= 2.5\ngini = 0.355\nsamples = 13\nvalue = [10, 3]"] ;
145 -> 146 ;
147 [label="gini = 0.245\nsamples = 7\nvalue = [6, 1]"] ;
146 -> 147 ;
148 [label="title <= 1.5\ngini = 0.444\nsamples = 6\nvalue = [4, 2]"] ;
146 -> 148 ;
149 [label="gini = 0.48\nsamples = 5\nvalue = [3, 2]"] ;
148 -> 149 ;
150 [label="gini = 0.0\nsamples = 1\nvalue = [1, 0]"] ;
148 -> 150 ;
151 [label="embarked <= 2.5\ngini = 0.444\nsamples = 6\nvalue = [4, 2]"] ;
145 -> 151 ;
152 [label="gini = 0.0\nsamples = 1\nvalue = [0, 1]"] ;
151 -> 152 ;
153 [label="gini = 0.32\nsamples = 5\nvalue = [4, 1]"] ;
151 -> 153 ;
154 [label="gini = 0.0\nsamples = 1\nvalue = [0, 1]"] ;
136 -> 154 ;
155 [label="embarked <= 1.5\ngini = 0.247\nsamples = 90\nvalue = [77, 13]"] ;
135 -> 155 ;
156 [label="title <= 1.5\ngini = 0.288\nsamples = 63\nvalue = [52, 11]"] ;
155 -> 156 ;
157 [label="agerange <= 3.5\ngini = 0.325\nsamples = 44\nvalue = [35, 9]"] ;
156 -> 157 ;
158 [label="gini = 0.198\nsamples = 18\nvalue = [16, 2]"] ;
157 -> 158 ;
159 [label="agerange <= 4.5\ngini = 0.393\nsamples = 26\nvalue = [19, 7]"] ;
157 -> 159 ;
160 [label="pclass <= 2.5\ngini = 0.43\nsamples = 16\nvalue = [11, 5]"] ;
159 -> 160 ;
161 [label="gini = 0.0\nsamples = 1\nvalue = [1, 0]"] ;
160 -> 161 ;
162 [label="gini = 0.444\nsamples = 15\nvalue = [10, 5]"] ;
160 -> 162 ;
163 [label="gini = 0.32\nsamples = 10\nvalue = [8, 2]"] ;
159 -> 163 ;
164 [label="agerange <= 4.5\ngini = 0.188\nsamples = 19\nvalue = [17, 2]"] ;
156 -> 164 ;
165 [label="title <= 2.5\ngini = 0.26\nsamples = 13\nvalue = [11, 2]"] ;
164 -> 165 ;
166 [label="gini = 0.0\nsamples = 3\nvalue = [3, 0]"] ;
165 -> 166 ;
167 [label="title <= 4.5\ngini = 0.32\nsamples = 10\nvalue = [8, 2]"] ;
165 -> 167 ;
168 [label="agerange <= 3.5\ngini = 0.346\nsamples = 9\nvalue = [7, 2]"] ;
167 -> 168 ;
169 [label="title <= 3.5\ngini = 0.444\nsamples = 3\nvalue = [2, 1]"] ;
168 -> 169 ;
170 [label="gini = 0.0\nsamples = 1\nvalue = [1, 0]"] ;
169 -> 170 ;
171 [label="gini = 0.5\nsamples = 2\nvalue = [1, 1]"] ;
169 -> 171 ;
172 [label="title <= 3.5\ngini = 0.278\nsamples = 6\nvalue = [5, 1]"] ;
168 -> 172 ;
173 [label="gini = 0.375\nsamples = 4\nvalue = [3, 1]"] ;
172 -> 173 ;
174 [label="gini = 0.0\nsamples = 2\nvalue = [2, 0]"] ;
172 -> 174 ;
175 [label="gini = 0.0\nsamples = 1\nvalue = [1, 0]"] ;
167 -> 175 ;
176 [label="gini = 0.0\nsamples = 6\nvalue = [6, 0]"] ;
164 -> 176 ;
177 [label="agerange <= 3.5\ngini = 0.137\nsamples = 27\nvalue = [25, 2]"] ;
155 -> 177 ;
178 [label="embarked <= 2.5\ngini = 0.208\nsamples = 17\nvalue = [15, 2]"] ;
177 -> 178 ;
179 [label="title <= 2.0\ngini = 0.142\nsamples = 13\nvalue = [12, 1]"] ;
178 -> 179 ;
180 [label="gini = 0.198\nsamples = 9\nvalue = [8, 1]"] ;
179 -> 180 ;
181 [label="gini = 0.0\nsamples = 4\nvalue = [4, 0]"] ;
179 -> 181 ;
182 [label="gini = 0.375\nsamples = 4\nvalue = [3, 1]"] ;
178 -> 182 ;
183 [label="gini = 0.0\nsamples = 10\nvalue = [10, 0]"] ;
177 -> 183 ;
184 [label="gini = 0.0\nsamples = 9\nvalue = [9, 0]"] ;
122 -> 184 ;
185 [label="title <= 2.5\ngini = 0.192\nsamples = 177\nvalue = [158, 19]"] ;
121 -> 185 ;
186 [label="embarked <= 1.5\ngini = 0.228\nsamples = 122\nvalue = [106, 16]"] ;
185 -> 186 ;
187 [label="farerange <= 2.5\ngini = 0.205\nsamples = 112\nvalue = [99, 13]"] ;
186 -> 187 ;
188 [label="agerange <= 4.5\ngini = 0.232\nsamples = 97\nvalue = [84, 13]"] ;
187 -> 188 ;
189 [label="agerange <= 1.5\ngini = 0.252\nsamples = 81\nvalue = [69, 12]"] ;
188 -> 189 ;
190 [label="pclass <= 2.5\ngini = 0.18\nsamples = 20\nvalue = [18, 2]"] ;
189 -> 190 ;
191 [label="gini = 0.0\nsamples = 6\nvalue = [6, 0]"] ;
190 -> 191 ;
192 [label="farerange <= 1.5\ngini = 0.245\nsamples = 14\nvalue = [12, 2]"] ;
190 -> 192 ;
193 [label="title <= 1.5\ngini = 0.26\nsamples = 13\nvalue = [11, 2]"] ;
192 -> 193 ;
194 [label="gini = 0.278\nsamples = 12\nvalue = [10, 2]"] ;
193 -> 194 ;
195 [label="gini = 0.0\nsamples = 1\nvalue = [1, 0]"] ;
193 -> 195 ;
196 [label="gini = 0.0\nsamples = 1\nvalue = [1, 0]"] ;
192 -> 196 ;
197 [label="pclass <= 2.5\ngini = 0.274\nsamples = 61\nvalue = [51, 10]"] ;
189 -> 197 ;
198 [label="agerange <= 2.5\ngini = 0.32\nsamples = 25\nvalue = [20, 5]"] ;
197 -> 198 ;
199 [label="farerange <= 1.5\ngini = 0.49\nsamples = 7\nvalue = [4, 3]"] ;
198 -> 199 ;
200 [label="gini = 0.444\nsamples = 3\nvalue = [1, 2]"] ;
199 -> 200 ;
201 [label="title <= 1.5\ngini = 0.375\nsamples = 4\nvalue = [3, 1]"] ;
199 -> 201 ;
202 [label="gini = 0.444\nsamples = 3\nvalue = [2, 1]"] ;
201 -> 202 ;
203 [label="gini = 0.0\nsamples = 1\nvalue = [1, 0]"] ;
201 -> 203 ;
204 [label="title <= 1.5\ngini = 0.198\nsamples = 18\nvalue = [16, 2]"] ;
198 -> 204 ;
205 [label="agerange <= 3.5\ngini = 0.117\nsamples = 16\nvalue = [15, 1]"] ;
204 -> 205 ;
206 [label="gini = 0.0\nsamples = 9\nvalue = [9, 0]"] ;
205 -> 206 ;
207 [label="farerange <= 1.5\ngini = 0.245\nsamples = 7\nvalue = [6, 1]"] ;
205 -> 207 ;
208 [label="gini = 0.0\nsamples = 3\nvalue = [3, 0]"] ;
207 -> 208 ;
209 [label="gini = 0.375\nsamples = 4\nvalue = [3, 1]"] ;
207 -> 209 ;
210 [label="farerange <= 1.5\ngini = 0.5\nsamples = 2\nvalue = [1, 1]"] ;
204 -> 210 ;
211 [label="gini = 0.0\nsamples = 1\nvalue = [1, 0]"] ;
210 -> 211 ;
212 [label="gini = 0.0\nsamples = 1\nvalue = [0, 1]"] ;
210 -> 212 ;
213 [label="agerange <= 3.5\ngini = 0.239\nsamples = 36\nvalue = [31, 5]"] ;
197 -> 213 ;
214 [label="agerange <= 2.5\ngini = 0.302\nsamples = 27\nvalue = [22, 5]"] ;
213 -> 214 ;
215 [label="gini = 0.124\nsamples = 15\nvalue = [14, 1]"] ;
214 -> 215 ;
216 [label="title <= 1.5\ngini = 0.444\nsamples = 12\nvalue = [8, 4]"] ;
214 -> 216 ;
217 [label="gini = 0.48\nsamples = 10\nvalue = [6, 4]"] ;
216 -> 217 ;
218 [label="gini = 0.0\nsamples = 2\nvalue = [2, 0]"] ;
216 -> 218 ;
219 [label="gini = 0.0\nsamples = 9\nvalue = [9, 0]"] ;
213 -> 219 ;
220 [label="farerange <= 1.5\ngini = 0.117\nsamples = 16\nvalue = [15, 1]"] ;
188 -> 220 ;
221 [label="pclass <= 2.5\ngini = 0.219\nsamples = 8\nvalue = [7, 1]"] ;
220 -> 221 ;
222 [label="gini = 0.5\nsamples = 2\nvalue = [1, 1]"] ;
221 -> 222 ;
223 [label="gini = 0.0\nsamples = 6\nvalue = [6, 0]"] ;
221 -> 223 ;
224 [label="gini = 0.0\nsamples = 8\nvalue = [8, 0]"] ;
220 -> 224 ;
225 [label="gini = 0.0\nsamples = 15\nvalue = [15, 0]"] ;
187 -> 225 ;
226 [label="agerange <= 4.5\ngini = 0.42\nsamples = 10\nvalue = [7, 3]"] ;
186 -> 226 ;
227 [label=" parents/children <= 0.5\ngini = 0.5\nsamples = 6\nvalue = [3, 3]"] ;
226 -> 227 ;
228 [label="agerange <= 3.5\ngini = 0.48\nsamples = 5\nvalue = [3, 2]"] ;
227 -> 228 ;
229 [label="agerange <= 2.0\ngini = 0.444\nsamples = 3\nvalue = [1, 2]"] ;
228 -> 229 ;
230 [label="farerange <= 2.5\ngini = 0.5\nsamples = 2\nvalue = [1, 1]"] ;
229 -> 230 ;
231 [label="gini = 0.0\nsamples = 1\nvalue = [0, 1]"] ;
230 -> 231 ;
232 [label="gini = 0.0\nsamples = 1\nvalue = [1, 0]"] ;
230 -> 232 ;
233 [label="gini = 0.0\nsamples = 1\nvalue = [0, 1]"] ;
229 -> 233 ;
234 [label="gini = 0.0\nsamples = 2\nvalue = [2, 0]"] ;
228 -> 234 ;
235 [label="gini = 0.0\nsamples = 1\nvalue = [0, 1]"] ;
227 -> 235 ;
236 [label="gini = 0.0\nsamples = 4\nvalue = [4, 0]"] ;
226 -> 236 ;
237 [label="agerange <= 4.5\ngini = 0.103\nsamples = 55\nvalue = [52, 3]"] ;
185 -> 237 ;
238 [label="title <= 4.5\ngini = 0.043\nsamples = 45\nvalue = [44, 1]"] ;
237 -> 238 ;
239 [label="gini = 0.0\nsamples = 38\nvalue = [38, 0]"] ;
238 -> 239 ;
240 [label="embarked <= 1.5\ngini = 0.245\nsamples = 7\nvalue = [6, 1]"] ;
238 -> 240 ;
241 [label="gini = 0.0\nsamples = 5\nvalue = [5, 0]"] ;
240 -> 241 ;
242 [label="farerange <= 1.5\ngini = 0.5\nsamples = 2\nvalue = [1, 1]"] ;
240 -> 242 ;
243 [label="gini = 0.0\nsamples = 1\nvalue = [1, 0]"] ;
242 -> 243 ;
244 [label="gini = 0.0\nsamples = 1\nvalue = [0, 1]"] ;
242 -> 244 ;
245 [label="title <= 3.5\ngini = 0.32\nsamples = 10\nvalue = [8, 2]"] ;
237 -> 245 ;
246 [label="embarked <= 1.5\ngini = 0.48\nsamples = 5\nvalue = [3, 2]"] ;
245 -> 246 ;
247 [label="farerange <= 1.5\ngini = 0.5\nsamples = 4\nvalue = [2, 2]"] ;
246 -> 247 ;
248 [label="gini = 0.5\nsamples = 2\nvalue = [1, 1]"] ;
247 -> 248 ;
249 [label="gini = 0.5\nsamples = 2\nvalue = [1, 1]"] ;
247 -> 249 ;
250 [label="gini = 0.0\nsamples = 1\nvalue = [1, 0]"] ;
246 -> 250 ;
251 [label="gini = 0.0\nsamples = 5\nvalue = [5, 0]"] ;
245 -> 251 ;
252 [label="pclass <= 2.5\ngini = 0.444\nsamples = 9\nvalue = [3, 6]"] ;
120 -> 252 ;
253 [label="gini = 0.0\nsamples = 2\nvalue = [2, 0]"] ;
252 -> 253 ;
254 [label="title <= 2.0\ngini = 0.245\nsamples = 7\nvalue = [1, 6]"] ;
252 -> 254 ;
255 [label="agerange <= 3.5\ngini = 0.444\nsamples = 3\nvalue = [1, 2]"] ;
254 -> 255 ;
256 [label="gini = 0.0\nsamples = 1\nvalue = [1, 0]"] ;
255 -> 256 ;
257 [label="gini = 0.0\nsamples = 2\nvalue = [0, 2]"] ;
255 -> 257 ;
258 [label="gini = 0.0\nsamples = 4\nvalue = [0, 4]"] ;
254 -> 258 ;
259 [label="title <= 4.0\ngini = 0.103\nsamples = 92\nvalue = [87, 5]"] ;
119 -> 259 ;
260 [label="farerange <= 3.5\ngini = 0.086\nsamples = 89\nvalue = [85, 4]"] ;
259 -> 260 ;
261 [label="embarked <= 1.5\ngini = 0.15\nsamples = 49\nvalue = [45, 4]"] ;
260 -> 261 ;
262 [label="title <= 1.5\ngini = 0.102\nsamples = 37\nvalue = [35, 2]"] ;
261 -> 262 ;
263 [label="gini = 0.0\nsamples = 16\nvalue = [16, 0]"] ;
262 -> 263 ;
264 [label="farerange <= 0.5\ngini = 0.172\nsamples = 21\nvalue = [19, 2]"] ;
262 -> 264 ;
265 [label="title <= 2.5\ngini = 0.375\nsamples = 4\nvalue = [3, 1]"] ;
264 -> 265 ;
266 [label=" parents/children <= 0.5\ngini = 0.5\nsamples = 2\nvalue = [1, 1]"] ;
265 -> 266 ;
267 [label="gini = 0.0\nsamples = 1\nvalue = [0, 1]"] ;
266 -> 267 ;
268 [label="gini = 0.0\nsamples = 1\nvalue = [1, 0]"] ;
266 -> 268 ;
269 [label="gini = 0.0\nsamples = 2\nvalue = [2, 0]"] ;
265 -> 269 ;
270 [label="agerange <= 3.5\ngini = 0.111\nsamples = 17\nvalue = [16, 1]"] ;
264 -> 270 ;
271 [label="gini = 0.0\nsamples = 8\nvalue = [8, 0]"] ;
270 -> 271 ;
272 [label=" parents/children <= 0.5\ngini = 0.198\nsamples = 9\nvalue = [8, 1]"] ;
270 -> 272 ;
273 [label="farerange <= 2.5\ngini = 0.278\nsamples = 6\nvalue = [5, 1]"] ;
272 -> 273 ;
274 [label="gini = 0.0\nsamples = 2\nvalue = [2, 0]"] ;
273 -> 274 ;
275 [label="pclass <= 2.5\ngini = 0.375\nsamples = 4\nvalue = [3, 1]"] ;
273 -> 275 ;
276 [label="gini = 0.0\nsamples = 1\nvalue = [1, 0]"] ;
275 -> 276 ;
277 [label="gini = 0.444\nsamples = 3\nvalue = [2, 1]"] ;
275 -> 277 ;
278 [label="gini = 0.0\nsamples = 3\nvalue = [3, 0]"] ;
272 -> 278 ;
279 [label="siblings/spouses <= 1.5\ngini = 0.278\nsamples = 12\nvalue = [10, 2]"] ;
261 -> 279 ;
280 [label="agerange <= 1.5\ngini = 0.18\nsamples = 10\nvalue = [9, 1]"] ;
279 -> 280 ;
281 [label="farerange <= 1.0\ngini = 0.444\nsamples = 3\nvalue = [2, 1]"] ;
280 -> 281 ;
282 [label="gini = 0.0\nsamples = 2\nvalue = [2, 0]"] ;
281 -> 282 ;
283 [label="gini = 0.0\nsamples = 1\nvalue = [0, 1]"] ;
281 -> 283 ;
284 [label="gini = 0.0\nsamples = 7\nvalue = [7, 0]"] ;
280 -> 284 ;
285 [label="embarked <= 2.5\ngini = 0.5\nsamples = 2\nvalue = [1, 1]"] ;
279 -> 285 ;
286 [label="gini = 0.0\nsamples = 1\nvalue = [1, 0]"] ;
285 -> 286 ;
287 [label="gini = 0.0\nsamples = 1\nvalue = [0, 1]"] ;
285 -> 287 ;
288 [label="gini = 0.0\nsamples = 40\nvalue = [40, 0]"] ;
260 -> 288 ;
289 [label="agerange <= 2.5\ngini = 0.444\nsamples = 3\nvalue = [2, 1]"] ;
259 -> 289 ;
290 [label="gini = 0.5\nsamples = 2\nvalue = [1, 1]"] ;
289 -> 290 ;
291 [label="gini = 0.0\nsamples = 1\nvalue = [1, 0]"] ;
289 -> 291 ;
292 [label="pclass <= 2.5\ngini = 0.393\nsamples = 339\nvalue = [91, 248]"] ;
0 -> 292 [labeldistance=2.5, labelangle=-45, headlabel="False"] ;
293 [label="farerange <= 3.5\ngini = 0.117\nsamples = 177\nvalue = [11, 166]"] ;
292 -> 293 ;
294 [label="title <= 1.5\ngini = 0.227\nsamples = 46\nvalue = [6, 40]"] ;
293 -> 294 ;
295 [label="siblings/spouses <= 0.5\ngini = 0.114\nsamples = 33\nvalue = [2, 31]"] ;
294 -> 295 ;
296 [label="farerange <= 2.5\ngini = 0.069\nsamples = 28\nvalue = [1, 27]"] ;
295 -> 296 ;
297 [label="gini = 0.0\nsamples = 19\nvalue = [0, 19]"] ;
296 -> 297 ;
298 [label="agerange <= 4.5\ngini = 0.198\nsamples = 9\nvalue = [1, 8]"] ;
296 -> 298 ;
299 [label=" parents/children <= 0.5\ngini = 0.278\nsamples = 6\nvalue = [1, 5]"] ;
298 -> 299 ;
300 [label="gini = 0.375\nsamples = 4\nvalue = [1, 3]"] ;
299 -> 300 ;
301 [label="gini = 0.0\nsamples = 2\nvalue = [0, 2]"] ;
299 -> 301 ;
302 [label="gini = 0.0\nsamples = 3\nvalue = [0, 3]"] ;
298 -> 302 ;
303 [label="farerange <= 2.5\ngini = 0.32\nsamples = 5\nvalue = [1, 4]"] ;
295 -> 303 ;
304 [label="embarked <= 1.5\ngini = 0.5\nsamples = 2\nvalue = [1, 1]"] ;
303 -> 304 ;
305 [label="gini = 0.0\nsamples = 1\nvalue = [1, 0]"] ;
304 -> 305 ;
306 [label="gini = 0.0\nsamples = 1\nvalue = [0, 1]"] ;
304 -> 306 ;
307 [label="gini = 0.0\nsamples = 3\nvalue = [0, 3]"] ;
303 -> 307 ;
308 [label=" parents/children <= 0.5\ngini = 0.426\nsamples = 13\nvalue = [4, 9]"] ;
294 -> 308 ;
309 [label="agerange <= 2.5\ngini = 0.48\nsamples = 10\nvalue = [4, 6]"] ;
308 -> 309 ;
310 [label="gini = 0.0\nsamples = 2\nvalue = [2, 0]"] ;
309 -> 310 ;
311 [label="title <= 2.5\ngini = 0.375\nsamples = 8\nvalue = [2, 6]"] ;
309 -> 311 ;
312 [label="gini = 0.0\nsamples = 1\nvalue = [1, 0]"] ;
311 -> 312 ;
313 [label="title <= 4.0\ngini = 0.245\nsamples = 7\nvalue = [1, 6]"] ;
311 -> 313 ;
314 [label="gini = 0.0\nsamples = 5\nvalue = [0, 5]"] ;
313 -> 314 ;
315 [label="siblings/spouses <= 2.0\ngini = 0.5\nsamples = 2\nvalue = [1, 1]"] ;
313 -> 315 ;
316 [label="gini = 0.0\nsamples = 1\nvalue = [1, 0]"] ;
315 -> 316 ;
317 [label="gini = 0.0\nsamples = 1\nvalue = [0, 1]"] ;
315 -> 317 ;
318 [label="gini = 0.0\nsamples = 3\nvalue = [0, 3]"] ;
308 -> 318 ;
319 [label="title <= 1.5\ngini = 0.073\nsamples = 131\nvalue = [5, 126]"] ;
293 -> 319 ;
320 [label="agerange <= 0.5\ngini = 0.102\nsamples = 93\nvalue = [5, 88]"] ;
319 -> 320 ;
321 [label="pclass <= 1.5\ngini = 0.375\nsamples = 4\nvalue = [1, 3]"] ;
320 -> 321 ;
322 [label="gini = 0.0\nsamples = 1\nvalue = [1, 0]"] ;
321 -> 322 ;
323 [label="gini = 0.0\nsamples = 3\nvalue = [0, 3]"] ;
321 -> 323 ;
324 [label="farerange <= 4.5\ngini = 0.086\nsamples = 89\nvalue = [4, 85]"] ;
320 -> 324 ;
325 [label="pclass <= 1.5\ngini = 0.172\nsamples = 21\nvalue = [2, 19]"] ;
324 -> 325 ;
326 [label="agerange <= 5.5\ngini = 0.444\nsamples = 6\nvalue = [2, 4]"] ;
325 -> 326 ;
327 [label="agerange <= 3.5\ngini = 0.5\nsamples = 4\nvalue = [2, 2]"] ;
326 -> 327 ;
328 [label="gini = 0.0\nsamples = 1\nvalue = [0, 1]"] ;
327 -> 328 ;
329 [label="agerange <= 4.5\ngini = 0.444\nsamples = 3\nvalue = [2, 1]"] ;
327 -> 329 ;
330 [label="gini = 0.5\nsamples = 2\nvalue = [1, 1]"] ;
329 -> 330 ;
331 [label="gini = 0.0\nsamples = 1\nvalue = [1, 0]"] ;
329 -> 331 ;
332 [label="gini = 0.0\nsamples = 2\nvalue = [0, 2]"] ;
326 -> 332 ;
333 [label="gini = 0.0\nsamples = 15\nvalue = [0, 15]"] ;
325 -> 333 ;
334 [label="siblings/spouses <= 0.5\ngini = 0.057\nsamples = 68\nvalue = [2, 66]"] ;
324 -> 334 ;
335 [label="gini = 0.0\nsamples = 36\nvalue = [0, 36]"] ;
334 -> 335 ;
336 [label="embarked <= 1.5\ngini = 0.117\nsamples = 32\nvalue = [2, 30]"] ;
334 -> 336 ;
337 [label="agerange <= 5.5\ngini = 0.245\nsamples = 14\nvalue = [2, 12]"] ;
336 -> 337 ;
338 [label=" parents/children <= 1.0\ngini = 0.18\nsamples = 10\nvalue = [1, 9]"] ;
337 -> 338 ;
339 [label="gini = 0.0\nsamples = 7\nvalue = [0, 7]"] ;
338 -> 339 ;
340 [label="pclass <= 1.5\ngini = 0.444\nsamples = 3\nvalue = [1, 2]"] ;
338 -> 340 ;
341 [label="siblings/spouses <= 2.0\ngini = 0.5\nsamples = 2\nvalue = [1, 1]"] ;
340 -> 341 ;
342 [label="gini = 0.0\nsamples = 1\nvalue = [1, 0]"] ;
341 -> 342 ;
343 [label="gini = 0.0\nsamples = 1\nvalue = [0, 1]"] ;
341 -> 343 ;
344 [label="gini = 0.0\nsamples = 1\nvalue = [0, 1]"] ;
340 -> 344 ;
345 [label=" parents/children <= 2.0\ngini = 0.375\nsamples = 4\nvalue = [1, 3]"] ;
337 -> 345 ;
346 [label="gini = 0.444\nsamples = 3\nvalue = [1, 2]"] ;
345 -> 346 ;
347 [label="gini = 0.0\nsamples = 1\nvalue = [0, 1]"] ;
345 -> 347 ;
348 [label="gini = 0.0\nsamples = 18\nvalue = [0, 18]"] ;
336 -> 348 ;
349 [label="gini = 0.0\nsamples = 38\nvalue = [0, 38]"] ;
319 -> 349 ;
350 [label="farerange <= 3.5\ngini = 0.5\nsamples = 162\nvalue = [80, 82]"] ;
292 -> 350 ;
351 [label="siblings/spouses <= 2.5\ngini = 0.492\nsamples = 144\nvalue = [63, 81]"] ;
350 -> 351 ;
352 [label="farerange <= 2.5\ngini = 0.486\nsamples = 139\nvalue = [58, 81]"] ;
351 -> 352 ;
353 [label="farerange <= 0.5\ngini = 0.496\nsamples = 112\nvalue = [51, 61]"] ;
352 -> 353 ;
354 [label=" parents/children <= 1.0\ngini = 0.464\nsamples = 60\nvalue = [22, 38]"] ;
353 -> 354 ;
355 [label="title <= 2.5\ngini = 0.458\nsamples = 59\nvalue = [21, 38]"] ;
354 -> 355 ;
356 [label="agerange <= 1.5\ngini = 0.42\nsamples = 40\nvalue = [12, 28]"] ;
355 -> 356 ;
357 [label="siblings/spouses <= 0.5\ngini = 0.473\nsamples = 13\nvalue = [5, 8]"] ;
356 -> 357 ;
358 [label="embarked <= 2.5\ngini = 0.486\nsamples = 12\nvalue = [5, 7]"] ;
357 -> 358 ;
359 [label="embarked <= 1.5\ngini = 0.444\nsamples = 6\nvalue = [2, 4]"] ;
358 -> 359 ;
360 [label="gini = 0.5\nsamples = 4\nvalue = [2, 2]"] ;
359 -> 360 ;
361 [label="gini = 0.0\nsamples = 2\nvalue = [0, 2]"] ;
359 -> 361 ;
362 [label="gini = 0.5\nsamples = 6\nvalue = [3, 3]"] ;
358 -> 362 ;
363 [label="gini = 0.0\nsamples = 1\nvalue = [0, 1]"] ;
357 -> 363 ;
364 [label="agerange <= 2.5\ngini = 0.384\nsamples = 27\nvalue = [7, 20]"] ;
356 -> 364 ;
365 [label="embarked <= 2.0\ngini = 0.278\nsamples = 12\nvalue = [2, 10]"] ;
364 -> 365 ;
366 [label="gini = 0.375\nsamples = 4\nvalue = [1, 3]"] ;
365 -> 366 ;
367 [label="gini = 0.219\nsamples = 8\nvalue = [1, 7]"] ;
365 -> 367 ;
368 [label="embarked <= 1.5\ngini = 0.444\nsamples = 15\nvalue = [5, 10]"] ;
364 -> 368 ;
369 [label="agerange <= 3.5\ngini = 0.5\nsamples = 4\nvalue = [2, 2]"] ;
368 -> 369 ;
370 [label="gini = 0.444\nsamples = 3\nvalue = [1, 2]"] ;
369 -> 370 ;
371 [label="gini = 0.0\nsamples = 1\nvalue = [1, 0]"] ;
369 -> 371 ;
372 [label="embarked <= 2.5\ngini = 0.397\nsamples = 11\nvalue = [3, 8]"] ;
368 -> 372 ;
373 [label="gini = 0.0\nsamples = 3\nvalue = [0, 3]"] ;
372 -> 373 ;
374 [label="title <= 1.5\ngini = 0.469\nsamples = 8\nvalue = [3, 5]"] ;
372 -> 374 ;
375 [label="agerange <= 3.5\ngini = 0.49\nsamples = 7\nvalue = [3, 4]"] ;
374 -> 375 ;
376 [label="gini = 0.5\nsamples = 4\nvalue = [2, 2]"] ;
375 -> 376 ;
377 [label="gini = 0.444\nsamples = 3\nvalue = [1, 2]"] ;
375 -> 377 ;
378 [label="gini = 0.0\nsamples = 1\nvalue = [0, 1]"] ;
374 -> 378 ;
379 [label="agerange <= 1.5\ngini = 0.499\nsamples = 19\nvalue = [9, 10]"] ;
355 -> 379 ;
380 [label="title <= 4.0\ngini = 0.375\nsamples = 8\nvalue = [2, 6]"] ;
379 -> 380 ;
381 [label="embarked <= 2.5\ngini = 0.245\nsamples = 7\nvalue = [1, 6]"] ;
380 -> 381 ;
382 [label="gini = 0.0\nsamples = 2\nvalue = [0, 2]"] ;
381 -> 382 ;
383 [label="gini = 0.32\nsamples = 5\nvalue = [1, 4]"] ;
381 -> 383 ;
384 [label="gini = 0.0\nsamples = 1\nvalue = [1, 0]"] ;
380 -> 384 ;
385 [label="agerange <= 4.0\ngini = 0.463\nsamples = 11\nvalue = [7, 4]"] ;
379 -> 385 ;
386 [label="title <= 4.0\ngini = 0.42\nsamples = 10\nvalue = [7, 3]"] ;
385 -> 386 ;
387 [label="agerange <= 2.5\ngini = 0.346\nsamples = 9\nvalue = [7, 2]"] ;
386 -> 387 ;
388 [label="embarked <= 2.0\ngini = 0.278\nsamples = 6\nvalue = [5, 1]"] ;
387 -> 388 ;
389 [label="gini = 0.0\nsamples = 3\nvalue = [3, 0]"] ;
388 -> 389 ;
390 [label="gini = 0.444\nsamples = 3\nvalue = [2, 1]"] ;
388 -> 390 ;
391 [label="embarked <= 2.0\ngini = 0.444\nsamples = 3\nvalue = [2, 1]"] ;
387 -> 391 ;
392 [label="gini = 0.5\nsamples = 2\nvalue = [1, 1]"] ;
391 -> 392 ;
393 [label="gini = 0.0\nsamples = 1\nvalue = [1, 0]"] ;
391 -> 393 ;
394 [label="gini = 0.0\nsamples = 1\nvalue = [0, 1]"] ;
386 -> 394 ;
395 [label="gini = 0.0\nsamples = 1\nvalue = [0, 1]"] ;
385 -> 395 ;
396 [label="gini = 0.0\nsamples = 1\nvalue = [1, 0]"] ;
354 -> 396 ;
397 [label="agerange <= 3.5\ngini = 0.493\nsamples = 52\nvalue = [29, 23]"] ;
353 -> 397 ;
398 [label=" parents/children <= 1.5\ngini = 0.5\nsamples = 40\nvalue = [20, 20]"] ;
397 -> 398 ;
399 [label="title <= 4.0\ngini = 0.497\nsamples = 37\nvalue = [20, 17]"] ;
398 -> 399 ;
400 [label=" parents/children <= 0.5\ngini = 0.494\nsamples = 36\nvalue = [20, 16]"] ;
399 -> 400 ;
401 [label="agerange <= 2.5\ngini = 0.463\nsamples = 22\nvalue = [14, 8]"] ;
400 -> 401 ;
402 [label="agerange <= 0.5\ngini = 0.488\nsamples = 19\nvalue = [11, 8]"] ;
401 -> 402 ;
403 [label="gini = 0.0\nsamples = 1\nvalue = [0, 1]"] ;
402 -> 403 ;
404 [label="embarked <= 2.5\ngini = 0.475\nsamples = 18\nvalue = [11, 7]"] ;
402 -> 404 ;
405 [label="farerange <= 1.5\ngini = 0.444\nsamples = 15\nvalue = [10, 5]"] ;
404 -> 405 ;
406 [label="title <= 2.0\ngini = 0.346\nsamples = 9\nvalue = [7, 2]"] ;
405 -> 406 ;
407 [label="siblings/spouses <= 0.5\ngini = 0.48\nsamples = 5\nvalue = [3, 2]"] ;
406 -> 407 ;
408 [label="agerange <= 1.5\ngini = 0.444\nsamples = 3\nvalue = [1, 2]"] ;
407 -> 408 ;
409 [label="gini = 0.0\nsamples = 1\nvalue = [1, 0]"] ;
408 -> 409 ;
410 [label="gini = 0.0\nsamples = 2\nvalue = [0, 2]"] ;
408 -> 410 ;
411 [label="gini = 0.0\nsamples = 2\nvalue = [2, 0]"] ;
407 -> 411 ;
412 [label="gini = 0.0\nsamples = 4\nvalue = [4, 0]"] ;
406 -> 412 ;
413 [label="embarked <= 1.5\ngini = 0.5\nsamples = 6\nvalue = [3, 3]"] ;
405 -> 413 ;
414 [label="gini = 0.0\nsamples = 2\nvalue = [0, 2]"] ;
413 -> 414 ;
415 [label="title <= 2.0\ngini = 0.375\nsamples = 4\nvalue = [3, 1]"] ;
413 -> 415 ;
416 [label="gini = 0.0\nsamples = 2\nvalue = [2, 0]"] ;
415 -> 416 ;
417 [label="gini = 0.5\nsamples = 2\nvalue = [1, 1]"] ;
415 -> 417 ;
418 [label="title <= 2.0\ngini = 0.444\nsamples = 3\nvalue = [1, 2]"] ;
404 -> 418 ;
419 [label="gini = 0.0\nsamples = 1\nvalue = [1, 0]"] ;
418 -> 419 ;
420 [label="gini = 0.0\nsamples = 2\nvalue = [0, 2]"] ;
418 -> 420 ;
421 [label="gini = 0.0\nsamples = 3\nvalue = [3, 0]"] ;
401 -> 421 ;
422 [label="agerange <= 0.5\ngini = 0.49\nsamples = 14\nvalue = [6, 8]"] ;
400 -> 422 ;
423 [label="siblings/spouses <= 0.5\ngini = 0.49\nsamples = 7\nvalue = [4, 3]"] ;
422 -> 423 ;
424 [label="farerange <= 1.5\ngini = 0.444\nsamples = 3\nvalue = [1, 2]"] ;
423 -> 424 ;
425 [label="gini = 0.0\nsamples = 1\nvalue = [1, 0]"] ;
424 -> 425 ;
426 [label="gini = 0.0\nsamples = 2\nvalue = [0, 2]"] ;
424 -> 426 ;
427 [label="embarked <= 1.5\ngini = 0.375\nsamples = 4\nvalue = [3, 1]"] ;
423 -> 427 ;
428 [label="title <= 1.5\ngini = 0.444\nsamples = 3\nvalue = [2, 1]"] ;
427 -> 428 ;
429 [label="gini = 0.5\nsamples = 2\nvalue = [1, 1]"] ;
428 -> 429 ;
430 [label="gini = 0.0\nsamples = 1\nvalue = [1, 0]"] ;
428 -> 430 ;
431 [label="gini = 0.0\nsamples = 1\nvalue = [1, 0]"] ;
427 -> 431 ;
432 [label="farerange <= 1.5\ngini = 0.408\nsamples = 7\nvalue = [2, 5]"] ;
422 -> 432 ;
433 [label="gini = 0.0\nsamples = 2\nvalue = [0, 2]"] ;
432 -> 433 ;
434 [label="title <= 2.5\ngini = 0.48\nsamples = 5\nvalue = [2, 3]"] ;
432 -> 434 ;
435 [label="title <= 1.5\ngini = 0.5\nsamples = 4\nvalue = [2, 2]"] ;
434 -> 435 ;
436 [label="agerange <= 2.0\ngini = 0.444\nsamples = 3\nvalue = [1, 2]"] ;
435 -> 436 ;
437 [label="gini = 0.0\nsamples = 1\nvalue = [0, 1]"] ;
436 -> 437 ;
438 [label="siblings/spouses <= 0.5\ngini = 0.5\nsamples = 2\nvalue = [1, 1]"] ;
436 -> 438 ;
439 [label="gini = 0.0\nsamples = 1\nvalue = [0, 1]"] ;
438 -> 439 ;
440 [label="gini = 0.0\nsamples = 1\nvalue = [1, 0]"] ;
438 -> 440 ;
441 [label="gini = 0.0\nsamples = 1\nvalue = [1, 0]"] ;
435 -> 441 ;
442 [label="gini = 0.0\nsamples = 1\nvalue = [0, 1]"] ;
434 -> 442 ;
443 [label="gini = 0.0\nsamples = 1\nvalue = [0, 1]"] ;
399 -> 443 ;
444 [label="gini = 0.0\nsamples = 3\nvalue = [0, 3]"] ;
398 -> 444 ;
445 [label=" parents/children <= 0.5\ngini = 0.375\nsamples = 12\nvalue = [9, 3]"] ;
397 -> 445 ;
446 [label="title <= 3.5\ngini = 0.444\nsamples = 9\nvalue = [6, 3]"] ;
445 -> 446 ;
447 [label="siblings/spouses <= 0.5\ngini = 0.469\nsamples = 8\nvalue = [5, 3]"] ;
446 -> 447 ;
448 [label="farerange <= 1.5\ngini = 0.444\nsamples = 6\nvalue = [4, 2]"] ;
447 -> 448 ;
449 [label="agerange <= 5.0\ngini = 0.48\nsamples = 5\nvalue = [3, 2]"] ;
448 -> 449 ;
450 [label="title <= 2.0\ngini = 0.444\nsamples = 3\nvalue = [2, 1]"] ;
449 -> 450 ;
451 [label="gini = 0.0\nsamples = 1\nvalue = [1, 0]"] ;
450 -> 451 ;
452 [label="gini = 0.5\nsamples = 2\nvalue = [1, 1]"] ;
450 -> 452 ;
453 [label="title <= 1.5\ngini = 0.5\nsamples = 2\nvalue = [1, 1]"] ;
449 -> 453 ;
454 [label="gini = 0.0\nsamples = 1\nvalue = [0, 1]"] ;
453 -> 454 ;
455 [label="gini = 0.0\nsamples = 1\nvalue = [1, 0]"] ;
453 -> 455 ;
456 [label="gini = 0.0\nsamples = 1\nvalue = [1, 0]"] ;
448 -> 456 ;
457 [label="gini = 0.5\nsamples = 2\nvalue = [1, 1]"] ;
447 -> 457 ;
458 [label="gini = 0.0\nsamples = 1\nvalue = [1, 0]"] ;
446 -> 458 ;
459 [label="gini = 0.0\nsamples = 3\nvalue = [3, 0]"] ;
445 -> 459 ;
460 [label=" parents/children <= 3.5\ngini = 0.384\nsamples = 27\nvalue = [7, 20]"] ;
352 -> 460 ;
461 [label="agerange <= 4.5\ngini = 0.32\nsamples = 25\nvalue = [5, 20]"] ;
460 -> 461 ;
462 [label="embarked <= 1.5\ngini = 0.278\nsamples = 24\nvalue = [4, 20]"] ;
461 -> 462 ;
463 [label="siblings/spouses <= 0.5\ngini = 0.391\nsamples = 15\nvalue = [4, 11]"] ;
462 -> 463 ;
464 [label="gini = 0.0\nsamples = 3\nvalue = [0, 3]"] ;
463 -> 464 ;
465 [label="title <= 1.5\ngini = 0.444\nsamples = 12\nvalue = [4, 8]"] ;
463 -> 465 ;
466 [label=" parents/children <= 0.5\ngini = 0.49\nsamples = 7\nvalue = [3, 4]"] ;
465 -> 466 ;
467 [label="gini = 0.0\nsamples = 2\nvalue = [0, 2]"] ;
466 -> 467 ;
468 [label=" parents/children <= 1.5\ngini = 0.48\nsamples = 5\nvalue = [3, 2]"] ;
466 -> 468 ;
469 [label="gini = 0.0\nsamples = 2\nvalue = [2, 0]"] ;
468 -> 469 ;
470 [label="agerange <= 2.0\ngini = 0.444\nsamples = 3\nvalue = [1, 2]"] ;
468 -> 470 ;
471 [label="gini = 0.0\nsamples = 1\nvalue = [0, 1]"] ;
470 -> 471 ;
472 [label="gini = 0.5\nsamples = 2\nvalue = [1, 1]"] ;
470 -> 472 ;
473 [label=" parents/children <= 0.5\ngini = 0.32\nsamples = 5\nvalue = [1, 4]"] ;
465 -> 473 ;
474 [label="gini = 0.0\nsamples = 1\nvalue = [1, 0]"] ;
473 -> 474 ;
475 [label="gini = 0.0\nsamples = 4\nvalue = [0, 4]"] ;
473 -> 475 ;
476 [label="gini = 0.0\nsamples = 9\nvalue = [0, 9]"] ;
462 -> 476 ;
477 [label="gini = 0.0\nsamples = 1\nvalue = [1, 0]"] ;
461 -> 477 ;
478 [label="gini = 0.0\nsamples = 2\nvalue = [2, 0]"] ;
460 -> 478 ;
479 [label="gini = 0.0\nsamples = 5\nvalue = [5, 0]"] ;
351 -> 479 ;
480 [label=" parents/children <= 4.5\ngini = 0.105\nsamples = 18\nvalue = [17, 1]"] ;
350 -> 480 ;
481 [label="gini = 0.0\nsamples = 12\nvalue = [12, 0]"] ;
480 -> 481 ;
482 [label="farerange <= 4.5\ngini = 0.278\nsamples = 6\nvalue = [5, 1]"] ;
480 -> 482 ;
483 [label="title <= 1.5\ngini = 0.444\nsamples = 3\nvalue = [2, 1]"] ;
482 -> 483 ;
484 [label="gini = 0.0\nsamples = 2\nvalue = [2, 0]"] ;
483 -> 484 ;
485 [label="gini = 0.0\nsamples = 1\nvalue = [0, 1]"] ;
483 -> 485 ;
486 [label="gini = 0.0\nsamples = 3\nvalue = [3, 0]"] ;
482 -> 486 ;
}